{"layers":[300,10,3],"weights":[[[0.19369803894573936,-0.10073845374761124,0.8446787139948574,-0.5623420920139559,0.2012973364272692,2.9878904125076358,-2.3142122534709335,-0.317181227952845,-1.619394672247603,0.7318560420746668,1.0782588587917028,1.446324316437777,-0.24144239329728484,-0.688620451828801,1.867495209489953,-2.446714180596644,-0.7109886257379455,0.29832153201987494,-0.3774542708297749,-1.4440982087589391,-1.1170670299620056,-0.9624080258215182,-0.881280826224448,-0.33612043045010664,0.08716396209520885,-0.6846134858482368,4.407223220063726,-2.6156545935489697,1.5847958436661855,1.2128816400194677,0.9251430500848394,1.6554920390043733,1.8018468873089861,-1.0159386465720028,0.20851127522072768,1.4677041768623724,0.44545583577759895,0.9429289171912134,0.6609078265140658,0.9303590229408407,-0.5042244019920108,-0.7681282287841694,-0.2718088070210314,-1.4486246149850117,-2.103057954631978,1.4792373021034966,0.6340096549919995,1.3240396773541614,-1.715404182105144,1.1497054243815115,-0.7884720178290247,0.8445718073454838,-0.16777267976650453,-0.30635358663957857,0.27469699018123905,-1.3223916324710627,0.539549534204304,1.1199917184797974,0.32764658838537425,0.8054639844866189,0.5859477825782655,0.11674943189854577,1.3291117497131715,0.43925237864785205,0.37641774916540155,1.1475596261779364,1.5251854146294384,0.6152162287583777,-1.6693178209932151,0.497576271335617,-0.7909183122165149,-0.9648834179037604,-1.7350820589721945,-0.47156124087694234,0.8313256130289878,1.8767833795872506,-0.4363126814681077,-0.9125254978498286,0.8893381377310899,-1.365605417671572,0.2686514094187912,-0.7660099899183113,-2.668996794782727,-0.3592715663782298,0.3471685394087055,1.3747063239974244,-1.0282530858641465,-0.36256688794447267,-0.7451189233543674,-2.6825225674266178,1.368263523709824,0.8944634218031832,-1.1286848253761457,0.43721152570986455,-0.23383918283178387,-1.254482445869418,0.5226495666600526,-0.3864656716994375,-1.4958861519159194,1.7030605708587432,2.3878243752192434,0.588776415769266,-1.9810636919707523,-0.15878121917073348,-0.06633712276824717,-0.08979626023076258,1.3075745083611732,1.3213665259200327,-1.6491712408135284,1.9527663314915953,0.06019721414390428,-2.4997253383202334,-0.04350999616642501,0.3351394940127467,-1.0784235496987329,-1.32779842253215,-0.801082661908799,0.5596719082710271,0.07793779230756162,-0.1472927855973836,0.28954097149235464,-0.7999987955249204,0.15550647399345024,0.6431691397943429,0.6915547561513719,-1.635954013401527,0.7766526963620061,1.3121712125909306,0.4920367656375864,-2.847225134101599,1.6495386617174859,0.8374303027984019,1.098206827075332,2.3681470869102244,0.29271242636518124,0.23712136999392294,-0.8437121379288943,-1.0273372128948735,-1.1577734050184203,-1.7567428121517963,-0.1955755481420236,0.9605940772337586,0.2683894466844264,0.06742778452879158,0.40460200464712287,-0.008499779052752668,-1.3872747412611566,0.34287125693947457,-1.6210194447633535,-0.4856782113184891,0.1434461909463735,0.38474218652112113,0.599959599801726,-0.16688458550453938,-0.5615151703209301,2.421358456128262,-1.333525747892388,0.6260818428758752,0.3137216982493041,0.7582781103695562,1.145475420495421,0.29396196507188593,-2.0840679922598264,-1.807585782019215,0.4317710215506241,-1.1112142117344788,0.8682480023898632,-1.346542629566624,2.5447429923395655,-0.42302832560497194,-0.6380067115004306,0.22922873313053668,-0.5981563168077151,0.8488578109238297,0.11704673109127581,-1.5482313195525774,-1.4083575927691987,-0.11813006943311814,0.01922565145220292,1.8848450349234487,2.2731341876242035,-0.31004777160251856,-1.2737019032212458,2.3980654862577584,1.6737034676591545,0.3829541724605868,-0.393181692742389,1.0316667126084986,-0.9387657113958323,0.4430593888440938,1.120623204926959,-0.9053999533503609,-2.391912656816258,1.8257027797309096,0.8138940727540582,0.7463436678643779,-0.3396160031028118,-0.6570303856657708,-0.4969447228826193,2.046471579428257,0.8455228969051157,0.9349776065602462,0.6526966895452738,-0.3848313375282919,0.4433887849551442,2.4753411403094105,0.8334813870222374,1.1774485467426479,1.0861919548809773,-0.7237385589911662,2.9268924800679086,-1.3474633472162507,0.6171430507718693,0.59946900996335,0.07916918288289058,-1.0450500494978794,-2.8826101626073606,-0.22537562799120972,1.3436189728054992,-2.861534583463496,-0.6887737473485631,-0.3316189294155714,0.5306435274325257,-0.11434880028755129,1.178749075293584,-0.9675565780038803,0.561938317966294,1.46923053857661,-0.5824769262367682,-1.3868358748989242,0.0888413526393063,-0.7778459578322461,-0.15447565431022536,0.6569595163489022,-1.6872073913068315,-1.768125650466437,-1.0177433366083821,-1.6495678409180907,-1.356277635838654,-0.23982365211999943,1.8796207649161087,0.7050909762779884,0.9423574779981658,-2.3223183391124174,0.37473057310852625,-1.502033713717843,0.025647569325111096,0.10361557973483185,0.07497598457295294,1.6960512417321258,-0.1053219678571053,-0.23738587005880443,-1.8642383247529228,-0.03993174492727812,-0.9556746255213404,-0.3086884472392104,0.8622766506438015,-0.9945942186828585,2.477183444574862,1.5566172900406512,-2.2407032306456562,1.750005183125783,0.24556492119856213,1.2335970319310017,-0.643123163345559,-0.9855757797079843,-1.5209227707431348,1.3203264673671444,1.6833094263046589,0.8006644011264028,-0.8993052754101848,0.17239813884747648,0.4018155107159684,-0.6207759343160523,-0.896401446095079,-1.9484995845214068,-0.6875001899661981,0.6354568120657901,0.46436203558672484,-0.8889183935682116,0.5591830641247814,-1.5551961940470307,-1.249827935649415,0.6943191118098855,-0.6251730401773498,-0.1209119348041044,0.9257859116796731,-0.6189139576726436,-0.6363452880744163,-1.400311762375592,-0.6198985552084211,0.5395187383398392,0.16298360615069438,2.0149500966539393,-0.522442338754496,-1.182040438362647,-1.7275924817464718,1.4810597857401848,1.2876266283232807,0.8770362207951022],[-1.016758404606158,0.03648533685943726,-0.7301864052926611,0.7956133444821647,0.9188119139357166,-0.9998550259887392,-0.19720499279525394,-1.0688198485903706,1.0639241752796667,-0.8950582243801335,0.679057697187344,0.416667024782255,-0.6124341123707725,1.5688275104622313,-0.2923321727443105,1.1008803345694393,1.3708976845866139,1.1008027953502544,0.4452973704260281,-0.6074517621851597,0.8759056877061072,-0.3315322435019924,0.3962537004785273,1.0868570643089832,-0.13804788088316397,0.5829082285227623,-2.0257158771173693,2.179362714203266,-1.4071185634320436,-1.047222906841266,-0.03555780768232809,-0.5501627896039653,-0.8542769533429618,-0.5922032795044194,0.8176526743707174,-0.6303332750822729,-0.7985930314716712,0.3634979277583722,0.5025747663353253,-0.9815605018845661,-0.1119865260019508,-0.0925416384074001,-0.4491281253220547,0.27784671644359316,0.3015068787637834,-1.0452093570068561,-0.08711182037904452,-0.16409969872258795,1.3996876595245127,-0.3952241166905555,0.4929535989349583,-0.16194790337406864,1.5607657830005985,0.03659475807482067,-0.9277949608083537,-0.6463822457135143,-1.2377529457916139,-1.1693026839518779,-0.07192135141097203,0.4701340872534107,0.4226246608296659,0.11949724306619917,-2.195724128626979,0.2519224907770819,-0.5259733080436081,-0.11729063175150077,-0.23604328008969885,0.8004459278026628,0.5344324931323597,1.3121440026341538,1.1913039662004923,1.2289074756293836,1.7087043033358609,-0.09179905371302298,0.1349278934368012,-0.769242555130607,0.1488023456381355,0.6459586727624151,-0.9739486851328462,1.8585534929328047,-0.8865785701380101,0.5621957191742831,0.6860261903545901,1.618605899051101,-0.8619847222537698,-0.7856290501764278,0.24136570593231998,-1.1080454687088033,0.2822220638062737,1.8076759676165173,-1.5362877173096499,0.46948831245100564,1.838753495318853,0.2979091154944229,0.7597442823360266,0.6122746140186173,-0.9752368415495398,-0.9096674141173622,-0.0337195968597331,-1.6143424961387367,-2.212289198270931,-0.6141440861853078,0.21245295830628905,-0.8954036148661859,-0.5655745251104418,-1.1791087320222169,-0.8073021557218407,-2.1569234274140294,0.5056286819309215,-2.4119664604994013,1.1089170961366537,0.28375518973054425,-1.949262661857761,0.7758369073596126,0.7213101794843123,1.024214041313875,-0.6281391762096497,-0.5310036515031863,-0.6550576955956039,1.1070254532678467,-0.541321236821431,0.5020759422547418,-0.6308287644128374,0.46396977211656076,-1.1408232807168937,1.5232903860511033,0.6992760165163432,-1.3975820168214517,0.35746761810982386,1.3921612390223879,0.254840586226859,0.29583444136495224,0.9859974613317806,-1.7765782935936985,-0.09287600957611178,-1.3686305734887592,0.3170540233825675,0.038197038229687806,0.07089690171546022,0.10448221277265074,0.7588595128563684,0.8197709742697681,0.7683914074206807,-1.4074451334508287,-0.19684166323518895,0.24167266004690538,0.048453259589244714,0.2201123511922076,2.0868651783750334,0.2918097391971141,0.38334947116092766,0.04038225565248159,-0.5244988569681299,0.2950053527927506,1.2641128703634774,-1.5207176857515328,0.3252419447133523,-1.4835894207910538,0.3752370971946083,-0.43422214321600033,0.7098633860690974,-0.7411063102288271,1.5753529314147976,-0.685564286164136,0.7423219672939371,1.3856896639450036,0.04496751110422676,0.45791653598404125,-1.2048272580048787,0.4858945485301996,0.3785781326201903,-1.1239347008433873,0.12361930428087924,0.3239755596328701,-0.7448127927714445,0.95360099923386,1.196572391117835,-0.3726290532950934,-0.8338468954858022,0.04395056573336434,-2.690730074453483,-0.3606964078164153,0.767360442653832,-1.9484074393944284,-1.21140791729658,-0.13935010400656878,-0.5639003780641607,-0.7308614092142918,-0.1017073456817136,-1.8874594105642077,-0.7045768795036509,0.6446110942979333,1.6703867469819682,-0.9022543517602137,-1.667506563787551,-0.5521064666747454,1.1975737093433882,1.3076119950904819,0.08448956323468017,-1.612802120719735,-0.5503118525601708,0.9120160795885123,0.05361339643928773,-0.9978035385569312,0.20500185828787992,-1.90012943984527,-2.0149547767892,-1.3431068397666115,-0.5542327921737653,-0.9307497740457458,-2.0054537322838946,0.511014817402725,-0.7973552674313412,-0.2031937021604263,1.8554128462550388,1.0135214802299601,0.6862942580626632,-0.3273858396786179,-0.9756416671301598,3.2786191235688698,0.5504742304485488,-0.41193801996118207,-1.071132485021488,-0.4595258354260691,-1.3255292849177358,0.8235763591447659,0.48626021186279883,-0.5153432174524983,0.44337641783724685,0.8495820218309118,-1.0363354902610984,-0.40928857160741877,0.6521188620360174,-0.03570674108860845,1.2509540111055992,0.18293518138496104,-1.0240083462642364,1.5369012122301153,0.6080530852978743,0.9259086954315723,-0.7918500428883041,-0.5112960528865486,-1.248161665182005,2.1398781980510897,0.586511827468566,0.5428381448119628,0.10202572348166652,-0.6689557504893617,-1.0664146838997055,-0.013959054346754565,0.2821803316024445,1.4131528284506156,1.7911809746788527,0.6246902822931901,1.8043768065668746,1.2859995475191974,0.5337240789191844,1.2671410816432713,-2.0893969545758084,0.21635300675475216,1.3535184727959013,-0.6890698527431871,0.7358690881128372,-0.25461644350334645,0.7733840781547489,-0.10038204287482752,-0.25859034287392624,-1.564076281033753,-0.0706192302339886,0.416263531813816,0.42928678077802795,-0.18258719267518317,-1.3695959131873328,0.14658949986737524,0.5903003910964557,0.8075034581964732,0.5947578485477663,-0.5768759215330389,-0.3197695670622503,-0.22880672036937677,-0.1764785123144728,2.5552704201949488,-0.477029096307752,1.0238741397318123,-1.357553551357293,0.28351713610294277,-0.40483529126298134,0.5955673104217274,-0.336434717590958,0.7706175703670088,-1.0590284049124012,-1.766218573723227,-0.4834710252940854,-1.3661321228945702,-1.0229930389338042,1.1430757880283238,-0.05518936392738449,0.09591542615867277,-0.5095897931243727,-0.7349492167979415],[-0.9610639389286488,0.8099808842439292,0.029821973712951175,0.4593660646250513,0.6627326497479333,-0.016718677191000942,0.5179494070234436,0.1430522923027953,-0.7521968735152376,-0.13220256676005768,0.49855207291039655,-0.6097839096299579,-0.0521060218663926,0.9588368749081856,-0.6775193293220972,0.012396754227958263,-0.43521544821254576,0.9067317206297707,0.6649452634987668,-0.9189715568661385,-0.012256802373636142,0.970125278688974,-0.12426799194730268,-0.5133611131858229,0.14527059310222645,-0.31155632316433407,0.701338948592567,0.7241480482850753,-0.43749051268416256,-0.030477713071813153,0.25454936522552635,-0.2292672161926677,0.654210615694517,-0.8563223918208043,0.8051959812491134,0.3255257042897897,0.04493491315090381,-0.8310630671855054,-0.34218408326781863,0.39321353605460513,-0.47300965324692035,0.8126315639886881,0.5889332747430518,0.42851646207000677,-0.020228716057531085,-0.6573578344566654,-0.5148746886066345,0.14252397053504196,0.5928821343347426,-0.7468727847147593,-0.24307916119390105,0.5042274939806122,-0.6525618774877003,-0.17745192189988587,0.0063235630230020785,0.24326743107950988,0.14685673516448583,-0.7519574450435392,-0.6228191781191167,0.06115270901255168,-0.13368929772716415,-0.3970489998001398,0.1949279159345341,-0.7545797622697105,0.5666913024101102,0.4032739834312309,0.8518501899350314,-0.42707916870502927,0.9448067119853228,-0.9229597994616802,-0.5474316004110371,0.5402623677748364,-0.45086098787555506,0.8208326558377934,0.7637261217663878,-0.20138318393889784,-0.9047518049332495,0.83653987092786,0.3259222882488756,-0.4436311928704659,-0.2987430936684481,-0.8595688503640908,0.2664107822535178,0.6402690885367992,0.7648336271077769,0.27877333236701984,0.055363292112821545,0.6588526428391119,-0.9445850331698604,-0.36440663437614607,-0.7743556048996646,0.6318171392106389,-0.1342905650694578,0.6462796536001256,0.5759903240070741,0.015954897016114664,-0.7269172245281732,-0.1252602241005058,-0.3615317682594664,-0.6707235735136012,-0.4442130131281836,-0.9284791992964385,0.806974669332611,-0.17518642837222587,0.8497564546458202,-0.8215936340061577,-0.609288103378228,-0.08724565092574145,0.8566019332610623,-0.51844875220151,0.6114376614803199,0.8035745901627471,-0.5063094852502752,0.34811785438955756,-1.0653050538002222,-0.27794494692890365,-0.8171494014220324,-0.5087455607972382,0.8244050533459493,-0.8928040969044753,0.7040551206556176,0.4996729214251832,-0.18003720040801457,-0.8887419384948895,0.40081673143141466,0.03395527740121431,0.8832954500307152,0.881243699543557,0.506457915650124,-0.12293322626619407,-0.9832439195120234,0.39140131301780307,-0.9053886420445932,0.31869157619226424,-0.600448637496423,0.190743485856452,0.20009790953653322,0.09397279832919805,-0.15798155467631253,0.5924015932298778,-0.8557543907909225,0.8547779722616092,-0.5509781329383503,0.8315625038024864,0.12901965304718416,0.4009691056747993,0.4481281009038484,0.8094299683744977,-0.23233634002284442,-0.7468807036017983,-0.6630987105045668,0.05625243445638325,0.22227171034065388,0.9536295962605197,0.4023259353668014,0.13405341638172888,-0.6340985853172685,-0.4501788076437616,0.6019171952794029,-0.16362865473704286,0.14991364626563636,0.28289758016707806,1.1983180096034685,-0.5527291665728382,-0.8450398783856579,0.9675834948384918,0.14378617491557508,0.5098485448032659,-0.058830591565750906,-0.49251066169564234,-0.615530737195251,-0.7020810646346727,0.5276576021336433,-0.5426793646591541,-0.04105146304006305,-0.369314221263327,0.7816303189581321,1.2084899711008281,-0.2506752933626494,-1.0951157959890239,-0.09858263820211748,-0.7261125876911401,-0.4027952918790838,-1.057379096671096,0.26485574109026944,1.1256310024665637,-0.029633022091584364,0.01480278795512512,-0.9077373824184459,-0.37366469225764937,0.8466612096346331,0.4160931852217322,-0.5651323443134806,-0.31080618429162854,0.6760327290246141,-0.2859001612495568,0.12720975044770674,0.199986348577749,0.5324094925301246,0.4591838809498645,-0.9896284498273644,0.03040401007335032,-0.15805204677153162,-0.039356609063644826,-0.2416021637777145,-0.6937333404648683,0.3407299912435369,-0.0059941691063418595,-0.17976501752249596,0.3828168344781623,-0.8924467084450954,-0.509039349006644,0.8091278580666494,-1.0632311768112548,-0.34450003224138415,-0.9432045042232853,-0.5668627674481597,0.6014892476345076,0.10002849388490716,0.46090157296138784,-0.5391550760358279,-0.8273887583277705,-0.6962075423297871,-0.878847536260417,0.7649933581535479,0.8655339178726682,-0.4235802243333374,-0.5354661432483167,-0.08979177210319922,-0.285203423580654,0.7461291716643105,0.7368252644250047,-0.579416532857458,0.3826708689654702,-0.38507389750985493,0.4920656951548023,0.21095530138239668,0.5651916705261316,0.14228948957703508,0.603427456845674,0.19856428190232867,0.49645427667861025,-0.45810762601955823,0.26085771603496527,-0.7152145134825479,-0.37856213806839173,-0.3728558145117127,0.0038956990743621435,-0.17994324017293276,-0.32639572543640594,0.47152373718665924,-0.5822831712529482,0.07486900100702962,-0.3913072599521668,0.9021711354956381,0.5329604548020018,-0.17630800476816658,0.1717150633127672,1.0160114258260529,0.45202110839659726,1.159163599718633,-0.030715537903611433,-0.5498886962464535,-0.029690737843183344,0.29549751806761115,0.5423617062377721,0.17884775965059704,-0.10421061497758294,-0.9483033006545311,0.27359948511423304,0.23106398159047767,-0.32647867352609544,-0.5031867821897859,0.4321349195649744,-0.6008356292317666,0.6358907244247441,0.06253618206954836,0.3460312873951604,-0.45445531950580864,0.35574316441264825,-0.39631953123899266,0.6984874371313416,0.7281236913939503,-0.2979349957213281,-0.5565089920782468,0.8631235115804975,0.7786024076671699,0.6932502483041264,0.15650363893919197,0.02351598990687423,0.4150849098714569,-0.8115836808863574,-0.784589142339632,-0.6699296275943442,0.5045748257464095,-0.11439730516131176,0.8139973698279005,0.4686338505036957,-0.03173147233686097,0.7580383887021247],[-0.8309798396123319,0.5586043566229517,0.09462362257870105,-0.12887253547508007,-0.6261337331495006,-0.05851307121503593,-0.9316009392301411,-0.9637800435544833,0.090093135749936,-0.5922807463519876,-0.5532821235965247,0.31116859754755977,0.161743606269523,-0.4842830856570887,-0.1059292497817626,0.05266195634972664,-0.24221240221755366,0.709122457693772,-0.40765039143069853,0.5689465906466654,-0.8004339274312451,0.22808598961607424,-0.06379246653170817,0.6615095275959453,0.27448917951281043,-0.7731142526894349,0.09424542392289251,0.10596451772754832,-0.5052268537197373,0.30136839485472183,-0.11912948336793064,-0.07205827265095648,1.2024283953949553,0.03225623803384433,-0.32474157683136257,-0.8945522325751905,-0.6664302961455827,0.48802769622412684,0.28732460975269775,-0.3252824955177771,0.008619026396853796,-0.6102332144963472,0.672526179925625,0.003595938854110546,-0.7885149827160464,-0.637172042724989,-0.16592240201592734,-0.5823791652833689,0.24406643840598982,0.8023900620753441,0.5349712214677933,0.3474605494836092,-0.9390118917780338,0.07314022830434613,-0.504943609185194,-0.8360862170835033,-0.1368104929662379,-0.9942001800076589,-0.006787691183627144,-0.13819578476833233,-0.5213362521967587,0.3240927373473644,-0.7578688571448058,-0.38058531459677925,-0.7057122146975604,-0.43719443585721957,-0.1669269938687311,0.08048657504767699,-0.3777929507437379,0.21306766095157967,0.08472450740326731,-0.42062115746530815,-0.9938849229049876,0.14432636661848,0.6909345997169815,0.4856628650122333,-0.90709333325954,0.3018165160512068,-0.34255240931399156,-0.660444934066741,-0.47966876881717474,0.1650056710259563,-0.02909876938321215,0.5707758256505464,-0.3007672526547305,-0.9108915286945662,0.02696103006576616,0.8301984380625061,0.6173912598109255,0.12247364711357969,1.079936667266584,0.1101207501986057,-0.7492994186575624,0.147093156769153,-1.0477150953980627,-0.5556319815278782,-0.06042342328645633,0.7497352866367565,-0.45713936150990636,-0.7634551364821978,-0.06439125339801333,0.45460634055339405,0.23888079082903393,0.578941885968466,-0.32763188359993844,-0.6885216674005029,0.33836475424243523,-0.6031331357567334,0.8330075453025804,-0.27833120200145395,0.6582019577282519,0.23084804557529132,0.19327971586329584,-0.030991716144818195,-0.01865919727368422,-0.6192067729180998,-0.6387027703504139,0.4719210829501785,-0.824102954638369,-0.6876169780593625,-0.8709735576967572,-0.40914825657148823,0.12353042246547044,0.6883838066370951,0.03566046051886118,0.3905118765737985,0.6609822432760728,0.36199133100671443,-0.27505261465576275,0.519764271036954,-0.27675407434287635,-0.5058143091529567,-1.0924883531721485,0.5484126631900259,-0.5703706498003129,0.3512012790124081,0.38740378139517007,-0.0032216081144913864,-0.2561056110377778,0.8088847627541912,0.7276564250864194,-0.5583195212130819,1.0132450544870641,-0.20218637202169748,-0.37457270299814843,-0.5914827642307008,0.5846474846853182,0.48034113329233813,-1.1201275358995277,0.6668123786374226,-0.006449741141349033,0.7704122177832144,0.385600393618599,0.3831789650131709,-0.6692793673001977,-0.6060300004811574,-0.28610309301997483,-0.245773471088387,0.3248178155789407,-0.876950076869511,0.1227087477414443,-0.7616120813640983,-1.0536166934603364,-0.6974530274284994,-0.16153378304009494,-0.7961991072415939,1.0046485692706713,0.5645701346037499,0.044043813926584366,-0.1355078639614482,0.6669879718063849,-0.508041079332404,-0.3730115601263116,-0.20441339377296167,0.04996053524893136,-1.0957755324783598,0.2752228116262146,-0.9313483734173998,-0.5436116730490345,0.11660229757605087,0.06168048906088111,0.2406074237228303,0.2712538374666375,-0.6307548398763078,-0.549180328887151,-0.821537504673294,-0.27808567669597917,-0.5012737452017253,0.8660595732687348,-0.29948898397134943,0.314290946880506,-0.8599942853378879,0.2402194638864553,0.9676057711173093,-0.5305285987780046,-0.41368218708951815,0.13891187572539895,-0.1738969502327574,0.4851053811538075,0.8372057193036078,0.21810117586100866,-0.6105499464943317,-0.780212231945584,0.11212671554476088,-0.015565745488401894,0.24222856013421218,0.21994044478812808,-0.6146236632881481,-0.3131535962895048,0.4523187850505193,0.7608538761278444,-0.9298412297354525,0.18540726479883743,-0.7060699435500327,-0.3098528851466689,0.6481208575494836,0.5489045680150205,-0.7823337250659061,0.6244056882863881,0.3251286665664977,-1.0315207140165892,-0.34648892474445125,0.5870355245954088,0.21406318719679904,1.038660293809018,0.33545820849543967,-0.5081623630950568,-0.09860193455843713,0.7825617210486745,-0.6269113413766465,0.4799514504167971,0.5303003032753647,0.27162984683829045,0.3810925129105843,-0.9739198437452365,-0.19541983433101678,0.054955476907260346,-0.007507646864899022,0.2495046711732668,0.7038536323236265,0.8213960857161763,0.8545745996051695,-0.17986282209759405,0.07768231997664372,-0.18109832109549454,-0.7185792943954912,0.3938312976905073,-0.04866840670372606,-0.1923502770908747,0.31356924137854936,-0.8810713808796963,0.428740267125631,-0.3572541219344471,0.5952693471467289,0.5987486403219631,-0.3761373603403271,0.8602516849079898,-0.055406221310262245,0.18591102901306628,0.9450806720276773,-1.139664089643254,0.011544568560773022,0.33269804415246707,-0.0859489937348089,-0.6057659044622813,-0.4786033788852167,0.37150237525947555,0.5481479219080285,-0.7910082931212105,-0.808468670874465,-0.6766950591779479,0.4043107215000353,0.8913653346165278,-0.435165285945434,-0.003911526889033536,-0.2539670013646226,-0.19521388288125352,-0.5971966593990791,-0.856736994211625,-0.5648073125887237,0.9292329373108306,-1.0314117575306745,-1.0804351425722218,-0.660816316352896,0.8127997641755121,-0.07536192902978033,-0.3178233225889316,-0.17544188574700142,0.9841215630795294,-0.8723828187891327,0.3283134263807312,1.0941015966095076,-0.5254607029262744,1.047747463298179,-0.6863382908235188,0.5915171357422089,0.25240392925601673,0.5475514442068207,0.001498842801658577,-0.7155249757711256],[0.45236971005121873,0.3531960105615869,0.35635118308023517,-0.2504700088696476,2.3249895046763513,-1.3938575992741817,0.7168220773282563,-0.23978654083075282,-0.26931517153335655,-0.2863629812284964,0.540699099199145,-0.6300434748483842,-0.7559638004151805,-0.137898647892954,0.28007941184441143,1.174633428106499,0.3595952034186501,1.6947770720079818,1.2575655330292093,-0.6136003229837127,1.0934118079527184,1.8285514434983523,-0.4271794494350154,-0.3107209052990067,-1.7913935628286615,-0.8732668410581927,-3.988785780601173,2.527305534491726,-0.7599024193181925,-0.57236244734539,-1.0062070056758359,0.28005347242763573,-2.2034969353524807,0.15102796667022128,2.3072511256133037,-0.7942820782194564,-0.7769376270285533,0.9143000317569716,1.4662326091157287,-0.12747497295224136,1.6818459364909637,-2.0998203230342916,0.21432891544416027,0.23629503375705074,0.8615360605492202,-1.9424615129986254,1.0433618075021713,-0.3197739296752745,1.5947359796261666,-0.7437599852238564,0.005596756544711033,0.14871561766365776,1.8241839789718335,-2.2176681143573127,1.464055528015014,1.2753989473859695,1.2400495470075665,0.4151512660448994,-0.3340553593429935,0.4538957056105173,-1.1237070279587174,0.3130708422319567,-2.7934609572722446,-1.2487685842274874,1.284409029017532,-1.1745242261582638,-0.2059729180653077,-0.21937615739117558,0.8245654561492577,-0.17037855067464508,1.780488304378157,-0.46208666773374474,1.1257288075917489,0.24645139828694287,-0.6371943472215877,-1.023064060490413,1.1539333117123374,0.918349361488893,-0.21385953901084492,0.6765798197034859,-0.355481556999294,0.2569807836301617,0.6934661402671893,0.43528029568213017,-0.5290139839637911,-1.4185953817116057,0.4789216202680092,-1.7543369991546072,1.0155443153160715,2.7424155063183844,-0.05980821904977044,-0.33666007209640986,0.5545232198448836,0.02084651976733396,-1.0198400718106526,1.3094465476974182,-0.8588996481927531,-0.0600600658342466,-0.6051031933414647,-1.7177558313478127,-3.48821954650524,-0.4069773385579756,0.7923123076788311,0.1868800083654029,-1.0241738924496606,-1.5425406211663213,0.5113066044792133,-2.3808128506585473,-0.6943013763982053,-1.6906906731187115,2.5765732887792643,2.8127305948294135,-1.705598306788598,0.31152502410070115,2.435280750727117,0.1153981588604475,0.8591416208430243,-1.1947617240770698,-0.5243351387571445,-0.1937822688016683,-0.7163310417865703,0.2380370618407346,-0.597135315015493,-0.015587002171504018,-0.2808328080979902,-0.23803876869405138,-1.3318505081191419,-2.3758244808406954,0.12288317948716873,1.7673649446602453,-2.176140261986023,-0.2058070950753231,-0.5481008840945996,-1.553842387225775,0.6211827516341348,0.18794508740457305,-0.11008864221604664,1.3550585442394414,0.39161884206937403,0.8704734599917742,-0.4765431736501408,0.8200671461067316,-2.2696730905272946,-1.200198475467829,0.7791854239996969,1.4490425843589054,1.2027845980308085,-0.502355792499709,2.0082718394265893,-0.7823162439509537,1.349907557250217,0.45562568383219754,-3.306024143097226,0.3722285923508805,0.639009575022087,-1.3990991858991697,-1.339139185844672,-0.5651384880199581,-0.1987173548448783,0.13774383280730584,0.10595072426979309,0.5090054125012033,3.2388026240425374,0.8360360517011783,0.5697578391719301,0.18433216148184325,-0.04204686690469607,-1.3763583487340367,-2.4836718732345524,-0.9984238041463337,0.055537828935108585,0.24385797830507858,0.17643749157143554,0.10511586743076162,-0.1815289135987545,0.758391082478157,-0.27562739365044253,0.6848841896429558,-2.267614790912027,-0.6275047628042392,-2.4103184172443606,-0.18016705606811,2.3912992862829925,-1.9070187629083233,-1.2892973399872196,-0.4068157516833771,-1.9847959633481547,-1.0773846147725583,-0.9791366987533022,-1.1835079155165362,1.1949799152485743,1.309805826480987,2.591956577980049,-0.842084383858403,-1.7655181683942691,-0.1429177842872984,1.033203130241292,-1.0705089388924047,1.1592801537379926,-3.10581285262876,0.6428805621898671,-0.06304026332053471,0.1486918509225451,-0.9126668887819983,-0.6327298244028811,-2.00968283785508,-1.275915836758945,-0.1973628518045318,0.720678841830752,1.0146273534282664,-0.75716114415287,1.2243316637171573,-0.05242268395400249,0.6239164742805443,0.5818714180829018,-0.3045440224452176,0.5899676331257108,1.1303415088002373,-0.6327804983129677,2.1178615965390772,1.7632840267903716,-0.23070031414198064,-0.5500325110289798,-1.126023182707957,-1.0045885747040197,0.41540328699943,-0.9563540725763259,-1.4543571103067123,0.7463492064750312,2.279232330375129,-1.1826163158552763,0.3421138404360737,0.008785208454538887,-1.5712267016966073,2.9352247119650703,1.0107706353113224,-0.16151946155810212,1.4107350817976287,0.5902447965511111,1.8956393866870511,-2.4665653446678375,0.15486892516135992,-1.6127063539094146,1.9847210307399898,-0.3151466660035342,1.339632503010928,0.0006818591194491666,-1.0285881323165,0.22045921007035554,-2.330278097151341,0.8702479204248094,0.5617453662320789,1.079163064062832,0.3983509180366139,1.2787716916231129,0.14346989691420395,-2.224560836211062,-0.11677229847404938,-1.5122910403399406,-0.47308344244348627,1.3451402635944765,-0.4376402611564907,0.15799435962859082,0.24510151312349007,1.4271154425044266,0.14421103828991397,0.35598736920096163,-1.1343714417872857,-0.5326571464723646,0.973935212687586,0.9722135556832284,0.11584566263940364,-0.47230779051908733,0.27370767080652936,2.1712800388490314,1.119122168253982,1.1965356060269337,-0.9848365302982725,-0.8650739180011048,1.4308152255697988,0.5052393823086754,1.9668734695582226,-0.8371124941703642,-0.03937899333887365,-2.9616566477016573,-0.18754251134091227,-0.01688644679599681,0.5721281694800744,-1.1919192352114596,0.7343053928848328,0.4084890816687262,-1.565318766843997,1.1776135904959042,-2.234151199497924,1.6495371937500318,0.8305419355294613,1.3972168592783625,-0.7390583002137896,-0.9727089968151298,-1.66528424336446],[-0.5366477670126459,0.7942794855113686,0.31013332837338387,0.6513770459923355,1.141804064838926,0.1668730497390303,0.28250803694334425,-0.2311528554803619,0.6663499909402005,0.03388150981724602,-0.3338631794367867,0.3270214609341318,0.5963938679933827,-0.7351957717077058,0.2474926970857238,-0.04552998153309332,0.7606359364248365,-0.7932953470446292,0.5901269909124873,-0.3005006009783406,-0.47063393582697677,-0.623830441758384,-0.8903955993489823,-0.8777977785523365,-0.3610480872417242,-0.38806239855333324,-0.02749656043231438,1.1090413393675198,0.2201901559743549,-0.032241509039339686,0.22786957062241384,-0.9080352413639411,-0.6632700183569842,-0.07695813358625078,0.10783742302440716,-0.7045739584731204,-0.6479476989103368,0.3333619531168179,0.6081631780425292,0.7016677701929345,-0.7964197168274991,0.4883018273098898,0.5218779689963344,1.0559827677298097,-0.3977662438810858,-1.0293145606283132,-0.04430626669016682,-0.2046402265830633,0.34785905245682275,0.9196730076441869,0.6548905854327685,0.8034966515349967,0.04628038938124533,-0.8671948196423309,-0.4212485763604605,1.0374536951117757,-0.35900002485555843,0.9510917344108054,0.43349391519086705,-0.6263331255422414,-0.07905371862659115,-0.6206829990812727,-0.7969002237425549,-0.5478964720179584,0.4960500375088049,0.47788196596274535,-0.44260350370161355,-0.7625938014882557,-0.5174926562163713,-0.7176231538783607,-0.2421525274856975,-0.2713882832068037,0.7231532875194066,0.7968771750994483,0.8873641160097537,0.32931060851900235,-0.6846205582648307,-0.582282530283702,0.11802688409074251,-0.01207002088007091,-0.9922949401648133,0.28320343721698277,0.18430685079631126,-0.7565467087051939,-0.6625589294786782,-0.26204239426486414,0.04753909675593389,0.3128230140235384,0.6368799047885516,0.7158138200764065,-0.6257945565887889,-0.37466510317420393,0.33668528897896505,0.745644951479339,0.7366008140987951,0.18629398677217693,0.15617895519020877,-0.24337177957204606,-0.8480698124353905,-0.6257105642387144,-1.092162670593657,-0.2905622787533325,0.452482431498545,0.0626912481628801,-0.033102275691942656,-0.4010503394420786,-0.3474130033298118,-0.544496360710966,0.13392738645366817,0.01502074882020818,0.22669375988282633,0.41714762459377025,-0.17304085835156954,0.3897100330492963,0.04263993493391898,1.0584249997116546,0.12370601292434555,-0.47149005446216463,-0.7573276009826847,0.1917666203142004,0.03879692653452969,0.5108394968428223,0.1802489882293558,0.9146977264327898,0.998983812304636,0.5515575024801819,0.36811712412238823,-0.8616496044324059,-0.5857261933660721,-0.21388893413995422,0.11618248037873677,0.30638036340021263,-0.9323347248796829,-0.44464480422996233,-0.05845807281218597,0.5765438102040402,0.5319434474088256,0.39138594926659925,0.9304569696554547,-0.44908010877092375,-0.4739834525812565,0.8968923941901198,-0.49836856277100383,-0.14974721863264226,0.16149818316973044,0.16718230587842836,1.1468819074602588,-0.020671588798973017,1.0408938953837312,-0.36181588947604615,0.5446304640538873,-0.7402005084062185,-0.7585659268036634,-0.21458699477600607,0.22753099474010005,-0.06861061446974592,-0.05537682618858406,-0.012639475970845592,1.0257647013328755,-0.2047789196281246,-0.22236179566209355,-0.5687955374843929,0.1038170347301337,0.32998344882129554,0.7474742639355253,-0.37082073258397047,-0.30715508591439217,0.2167392098725545,-0.9053004088486187,1.0146122155017854,-0.5758147783255777,0.5389278316619551,0.0631436181865091,-0.8348248526034872,-0.40266347202915626,0.26143136724154376,0.30292702194973015,0.5517728937127923,-0.790849236374629,-0.30395154629856347,-0.9249901204641742,-0.5487709320998786,0.6257161524110124,-0.779900559179582,0.20575847885053503,-0.9070898390520805,0.7140713192342737,0.8733398079604517,0.21668567821037468,-1.012131557420542,0.3149282552370755,0.42325430528979396,0.3194963621427358,0.05009776515499016,-1.1250978550672208,-1.0050444539031866,0.7008639261807528,-0.3374403677606541,0.5700147872934126,0.3200522146571863,-0.32312071259133285,-0.4799765902955617,-0.5488380201946382,0.7823342930649455,-0.5916882837546966,-0.3269983360646343,-1.2074655029102124,0.7767559257631506,-0.3301128966005975,-0.28787516381829253,0.2799042989872673,0.667949678613534,-0.4458845104305938,-0.8309115470662364,-0.13116853649095905,-0.3695864367403656,1.098471292281048,-0.5542517597527113,0.34218487952595145,0.4371462104757836,-0.32535732411500173,-0.9390244414376137,0.6131959643109165,-0.5034218115742242,0.051413733886091245,-0.5571039304706269,-1.139618194134697,-0.6932894219962287,-0.7259076403495364,0.20422155977348502,-0.17858832648894332,-0.15194733337900945,0.280038371404698,0.05211649115836558,-0.5187986495627745,1.0599268385868656,0.089444599481271,0.6233406683944906,0.8200015338182602,0.7840257865284858,-0.5449961128177462,0.1955586735163392,0.3014854003723782,-0.08031198449549551,0.7332140769352243,-0.4405820827697773,0.41247756081715586,0.9912564774696034,-0.024792591486688623,-1.0010042993724195,-0.00024573038577422137,-0.4101348072277028,-0.49169371372444437,-0.39356766007452765,0.26269311395157086,0.8297353729467198,0.35244589926555037,0.46692054956945417,0.5917041741315741,0.39948851389022033,-0.33488231357187886,-0.08314322042629585,0.44127286226437096,-1.0966881390057281,0.8252298491381762,-0.021861786601334254,-0.36984210522687283,-0.9191691743588017,-0.8078770393902326,0.7588074513099758,1.0739441450041711,0.48825690924968995,0.35771303274340605,1.2625899526750395,-0.26365295088650476,0.27004590556186764,0.060977105431082854,-0.7509310251928906,-0.2416397463163606,0.3433692312672609,0.8435410841421968,0.5961609649208108,0.033625196355379174,0.964511685312693,-0.4180358177761037,-0.9041636022863702,-0.401345126711553,-0.8716012089686148,-0.21371801417964986,-0.12403666140717617,-1.0799870810917824,-0.46155147253967066,-0.5840260946007599,-0.6912515370822299,-0.6627257815220567,-0.14732858486707692,1.1128840913974487,-0.70649511174516,0.4264915245720844,-0.049767904399299734],[0.5681054880689943,-0.009472889483813411,0.6463936164578602,-0.5691053442190576,0.6739510899438733,-1.0578900907493047,-0.07645091034697345,0.4704736502631636,-0.3904200171597141,0.8361616644782579,0.6739839031494562,0.5909456428817631,-0.6047327746258225,0.8911020276564395,0.3173282471158266,-0.3717546026433052,1.0662946638283954,-0.3400312842402065,-0.7088553608829875,-0.9108006965940348,-0.4415929970051415,0.390014469396679,-0.37191089447447756,-1.2907417951479774,-1.2109093480436028,-0.6093551715336417,-0.7472794176271492,0.43936451941008875,-0.6232927272198333,0.18320907533006367,-0.38962638916824455,0.011441348129602071,-0.6309837322880121,0.5637215779126227,1.4906682381312375,0.8936373050867773,-1.0078194432757916,-0.6083956077417875,-0.5969206455902645,-0.8233825897726506,-0.4565631685972999,-0.26666005186122604,-0.44527449008509584,0.5860340446125278,-0.34632599095448824,-0.6373805319058118,1.1043105049677604,-0.7050377645431966,0.974548880517802,0.30560120914811956,-0.27747687092551815,0.07955670082885821,-0.23192747354610838,-0.2790542064326676,0.761941596566297,-0.09197144235565884,-0.6169088762683219,0.727606248505238,0.4546264052758962,0.3135632007522728,0.23501818394005317,0.31624501669030775,0.009726888072740436,-0.9112122901970238,-0.48587864404963255,-0.7711726672986366,-0.48279371791736914,0.8660768702550596,-0.035329434129690966,0.23302062840060625,0.699261324436362,1.125509475520464,0.8309439948361532,-0.7012918582253199,-0.627939959274177,0.25626165628518593,-0.16459220255690035,1.2629949887909329,0.7627997110344891,1.0611835261232354,-0.7791687510158934,0.2970098032535943,-0.5052717943322517,0.3878921292163992,-0.6171263342226772,0.37566764546269393,-0.3162815320237982,0.1713142595789202,0.7417747441906395,1.418446436582128,-0.27821113658613594,-0.6066670590214697,1.2599663328281887,-0.707773657019805,-0.448417295103172,0.7688078470998649,-0.28759908278986884,1.1099254009693806,-0.18024514852472628,-1.3436139263719946,-1.4989819698221336,0.0800770564011637,-0.017375620369788985,0.7955287225006981,-0.06092666137604187,-0.20778010144625084,0.5694144990840382,-1.0702770060453841,-1.1475248767980937,-0.4227230369755679,1.5869637090488617,0.11061385278519859,-0.7682128058572189,0.6314139424733656,0.9768268314461075,-0.15426899649258988,-0.13548503404993356,0.18217457818518082,-0.5634193117413651,-0.5201954295254047,-0.544957666769038,-0.7029141251121588,-0.31926466100693873,-0.7292561098081585,-0.7132797457326441,0.2792884581532169,-1.3376754908705788,-1.273977059894515,-0.5919137949918355,1.1563920979949418,-1.4710357077562994,-0.39273023191922635,0.19338727200996636,-0.674654747109806,0.8048069519154574,0.5686530335404902,0.7214927648802192,0.514496432657033,0.2780828779587286,0.6722073461509781,0.2808855162689053,0.6518739388104009,-1.3377804153762387,-0.7008809158768127,-0.8223508370970882,0.017231592089938446,0.21169354420803219,-0.023957193258390012,1.1107242013136762,-0.34423182925734164,0.09928294619136462,0.19085871622763764,-1.7182739308656927,-0.29530858808857907,0.4729582371954124,-1.347669307515214,0.2653612669009367,0.5162951989554561,0.7231263287717733,0.8977013794339221,-0.7032851622552766,0.310229501904231,1.3733956661833633,-0.15158652176509946,0.49957218832277484,0.24034431598791461,-0.3892212226745348,-0.030068323202980734,-0.06799034773936956,-1.1093754735686798,0.3013512226132833,-0.044494968638740084,-0.2098780221132657,-0.34344151869653144,-1.0279719768938909,-0.3188645025814899,0.7988236265710481,0.6699148043347138,-0.10191893323004243,-0.030552504052501393,-0.01753565220884384,-0.9010981360583494,1.6025513870541856,-0.019134290949789454,-0.6297853120176519,-0.6221145743675254,-0.6678465197007625,0.24816011169853314,-0.4570696560531597,-0.6883973075911225,-0.4418244154489759,-0.09571690767651979,0.4513141372709036,-0.41689071811208306,-0.7363377604985176,-0.7316183538745983,-0.38860139687321743,-1.1727601290158798,-0.4735171761517198,-1.4325727948723916,0.15370307926912083,-0.4452834143221207,-0.5479376243725546,0.4157624308814386,-0.976590404506726,0.06497759489822641,-0.047708081531225244,-0.505741658587202,0.915363344970962,0.26590968609383586,0.005828767881333234,0.5492563015944665,-0.1433124800278744,-0.3519377369759796,1.2158863781377383,-0.7920406778999168,-0.4149931871859838,0.30314183730607536,0.3939060396787957,1.9045150659062753,0.601552885392639,-1.0285440438314468,0.0948947378831016,0.32378256165231195,-1.2477174985422963,-0.1930433732547922,-0.1879846395181099,-0.5356207535848874,0.9325236264617145,1.1488286017870222,-0.8990475679138209,0.5587115881428457,-0.06615777779468808,-0.8297772976003077,0.7510894936492207,0.7614780191661267,0.529339871478382,0.14153852609811365,0.06462079392764233,0.16003255707438058,-0.6174326863638008,1.1672937948136066,-1.4652910262374454,1.2364654972034104,-0.12109179299093557,-0.42650795450610335,-0.0734023817616987,0.4065772049762878,-0.40032242971834736,-1.439301440811075,0.7012172252033447,0.3820089517784368,0.8662042020422982,0.3482597623195513,1.18940495438703,-0.4932469945861525,-0.24922332088181634,0.9794379912562438,-0.15396090579334568,-0.10235705479086801,1.6505645913180376,-1.0407342170266225,0.16304651164674097,-0.13401949887166495,1.1569445005827745,-0.5109270740935414,-0.42341904917234746,-0.0678829838368312,-0.10865137777365542,-0.3567790159397462,0.47555845506347555,0.041158630495573105,-1.1985744707804462,-0.4381893898090397,-0.21328040912564344,-0.34787786900973505,0.9550908504790826,-0.40795218166507435,-1.1992284788317336,1.3671274081583957,0.2798734526736851,0.7587319539486211,-0.8590090431242499,0.6445068923777999,-0.33726467443471714,-0.0828707865537048,1.0195284726488756,0.8630067555823806,-0.22167820153888182,1.0168255573063927,-0.5659329209564392,-0.21500251918541272,-0.002638647695414514,-1.21378921829744,0.7583147507956569,0.3809783596052994,0.7883774764776738,-1.1174148036363982,-0.2679874904152287,0.15133758623176352],[-0.7797367779104871,-0.9926853289495707,0.5021566024844226,0.23402803149127596,1.5940987793158012,-0.7026170808369383,-0.0266853613199205,-0.15327805508771838,0.12506993718177187,-0.8903150861694018,0.7325325560584717,1.360492799473425,0.9225634961370097,-0.4493862997376676,0.4955923722914196,1.3027982577153516,0.4969569244227926,-0.8842385563943463,-0.13690824093275247,0.6605909789132364,-0.009969906728302516,-1.1485022933801905,0.38346944139597844,-0.20755457171284927,-0.8410899795482023,1.004361732793054,-1.8672910242859697,1.4768717441845784,-1.9230962865138845,0.3295625621382788,-1.1009194943239224,-1.300585979975617,-0.991763395631845,1.206704632978151,0.6900913060406747,-0.30723953192977566,-0.11261614531933263,-0.8907859685140261,0.8631026906067751,-1.960896025411391,-0.7029830010313363,0.17103535533628472,-1.3690368362657026,1.3204430738911195,1.3246564084827566,0.38221280175182576,0.2613331411140862,-0.5265194508341489,0.7791310146506701,-0.0346033113601844,1.0101974108166882,-1.1958409801057919,1.8578420923898877,-1.3150563914334543,-0.025634585802727025,-0.18000575754897755,-0.4258171940913876,0.8948036907842442,-0.22720661718911217,0.699944015830895,-0.20577170416461066,-0.8751426816701876,-0.28551192045183355,-0.29265329104667914,-0.09529126423158736,0.06129889886142238,0.9996996098943726,-0.32766080140776177,1.6757046161946476,-0.4776765874614994,-0.4247756708856986,0.16655402398093064,1.3790836601011902,0.9907284982706217,0.441418169460861,0.02788894213680812,0.775090349442829,0.5282085833303568,-0.6444542289342572,-0.3971984778029906,-1.1777809521832137,1.5141948720078002,0.07556072607839238,1.6857071886948107,0.33986857172401574,0.37611346669405904,1.2331669398217058,-1.7275885910391193,-0.05485996585670958,0.7544896637251112,-1.7427431362033592,0.10145366458600495,0.6025058482084147,0.38399201187892035,0.6731083423137828,-0.24717820768091583,-0.7305512891053652,0.48934112688467196,0.20579686581501302,0.05256407181450057,-1.0788513743102421,-0.18920735041700928,0.36682956059553673,-0.136473127999111,-0.8043105259523199,1.4827280121243798,-1.6203227428783264,-0.44329755461762244,0.01580570445702469,-1.2279476184582,0.965372890640749,1.4384107507424306,-0.750080461291812,-0.005692131085667639,0.09615730564725164,1.054449042552746,-1.2760705400432544,0.16263481784367606,-0.5540135419276521,-1.3551695961960684,-0.37056128177657244,-0.37543489905353905,0.7183797348600094,0.1186218040105035,0.4184554746137521,2.1292239278332494,-0.6731342745929958,-1.34701434812645,-1.1920637766886848,1.9444285002152715,0.13451872514788968,0.7427432505197362,0.607916601882103,-1.9764598935991287,0.9960944934223268,-0.2873512002124277,-0.7183105757197126,0.010838432650229796,0.24547543973688277,0.35084287697987376,-0.07172334152272278,0.4967751921943425,0.07551691335517298,-0.3162735386675262,0.5470079138419291,0.18965580830443288,2.1580365425754424,-0.26765125701218206,2.140144252980943,0.28317338478753923,-1.3304505677115301,-0.44919069144708534,-1.357281033634484,-0.3158451718295483,1.7879983348030801,-1.308259307380768,0.950988343321056,0.05478951105724836,0.49848305375466223,1.102773949458994,0.5062609068977464,-0.3256669021859939,0.8512517984361925,1.3506257121599279,-0.057520706400554136,1.9230190367136035,-0.8136928062562545,0.008521115566805387,-1.6254636101519544,0.2760266122631452,2.08527636286652,0.5604772038803929,0.3714975129918732,1.846957833831055,-0.38633502242222584,1.9603720732193057,-0.5486066338558861,0.89913357833551,0.1272623434294725,-0.6104641611040316,-0.7741711162775385,1.1754902355631143,0.8267536975393089,-2.1023391797681192,-1.0462608541533767,-0.7456683795195729,0.5798124525487508,-0.9867258732931976,-0.5017714137050338,-1.5186614012522788,0.21772639461795942,0.9979964446148218,1.712313724192249,-1.8162052395816628,-0.5680301889892979,-0.30643256157930004,0.5866049405048966,0.5033648514952814,0.35314536852642503,-0.09354948482232442,-1.1974536801001994,-0.4048552646099152,-0.38603622172498353,0.1631029651513309,-0.03977072192430512,-1.5464409376123984,-0.9870679926938254,0.11325121338335249,0.8718336741109379,0.15242816058837794,0.1497813519645766,-0.11211069606190098,0.745694012418867,0.0766704244526544,1.7543081771453521,-0.5861100280887878,1.3651292569700222,-0.18462472884099326,0.8724691383829236,3.234038869224836,0.281682992239717,-0.06638152839965479,-0.4456701681014466,-1.534363691235277,-1.6877799374812592,-0.18257521831788323,-0.15494823937143745,-0.010703215130997415,0.4977208760570846,1.1088728630718276,0.19719084501674847,-0.31676034036437434,-0.45400231163367116,-1.2183057300395836,1.7473047321086403,2.378070865135279,1.1054222163167668,1.247415838114643,0.10022451227838589,1.2872203069691857,-1.5974936436720226,1.3514520093606206,-1.02527541467953,3.5690411530170993,0.4256171215856273,-0.1298899755578921,-0.3739920418887249,-0.5123923889532206,-0.46513591004247945,-0.6214133831648976,0.48665858088310515,-0.061409731986436795,1.5463039547530764,-0.32413281993787135,0.04090952816074481,-0.1973555977551748,-0.7650120968063601,0.08127829457183369,-1.3579175453280699,0.9858340582912328,0.6728557034978453,-1.7887672277479707,1.022659922281231,-0.2268025480994713,0.4651644910363537,-0.934307681688236,1.6332124396643812,-0.6438546282724265,0.09413357283614528,1.034640305985751,1.4019605401988473,-2.229791971390976,-0.5670505937046058,0.8470424918467738,0.2817684138771461,1.7439524816815066,1.306062389744773,-0.09898904508337153,0.013243871020569889,-0.20303027858246356,0.6052659645390012,1.5012155295299343,0.7039776601100838,-0.42977142429268145,-0.5739981145163687,-0.6298152805934786,1.1005793583459624,-0.20095823831048462,0.4615226349051137,-0.2928168926277834,0.7423214501517268,-2.2315010657281995,2.514039506135798,-2.2633046431677224,1.1278669319691819,1.8800203160717341,1.740633184922549,-0.16498506361060014,-2.1155825583649355,-0.0936556216278336],[1.426430998510863,-0.5945838872024736,-0.0532375929362023,0.21940447746788336,-0.5969266516439043,0.7945367950014888,0.738922650976355,0.5289689666643148,0.8223117596749188,-0.08325221487165921,-0.06372691882727104,-0.272537982182078,0.1985861929718575,-0.5767358061002603,-1.8806683791267012,-0.3331588094663477,1.1704186881213297,0.29698991333263675,0.5350494915644285,-1.2190437625939254,-0.717172097852743,0.4971605636425025,0.8995658379921179,0.23986742708928951,1.0502750188546053,-0.44025686546373066,1.9190442730710227,-0.49874591992772055,1.92747908990452,0.04596797056085928,0.07700748797077586,1.2092234656521774,1.5776964642325515,-0.5207984894141291,-1.591838803800393,-0.7112664823100533,0.6689797917117688,-0.3524758078602531,0.4300576872255761,1.5344995603956062,1.2563233085472552,-0.5167952570215677,0.47328620055735765,0.31666158337467726,0.311075234153392,0.9439815026280562,-1.200191259945433,1.0225182540277677,0.2749108996910961,-0.18327131910675512,-1.2636393443267449,1.0017750889870494,0.00036468224473372565,0.3303877484047278,-0.5212993445212132,0.8194266648467089,1.0666698343573242,-0.7667712074295132,0.11579639315677072,-0.3342505240959416,0.49841328080388647,-0.2562808639955329,0.2816369826781074,0.2760895934692439,0.768445615541561,0.13168800683280055,0.555734738471631,-0.5378998428963842,-0.6121569822121772,0.2469181069051284,-0.0380529426074954,-0.34922072989221764,0.047461314978440305,0.9793915883224774,0.16125713670061928,1.467267270444407,0.7627559612097136,0.5654018644377515,0.4935552378704236,-0.6532606911453633,0.5179262767092924,-1.4787913885744752,-0.6153661228925814,-0.8366817558568447,0.6034937249345642,0.8979251297641058,-1.4895556948731297,1.3308355704681958,-0.8155088147135529,-0.34852170552398976,-0.549825097494987,-0.10535180328987469,-1.085019404631838,0.16144067180347582,0.3674225968987593,0.9487411149447909,1.5023644575390975,-0.4892736504678483,-0.6917077677811901,-0.05414732983398827,1.6626016243041448,0.07888735908887433,-1.1713562288340968,0.3566856192143746,-0.6132973293677746,0.20072865088502945,0.24708530675450716,0.38753120988539214,-0.862740690557,-0.08809748649934025,-0.006581724090384801,-0.647494071530999,0.35544148090596267,-0.28025048228221666,-0.7397198866447909,-0.6032029663389114,0.8679421951918632,-0.3225832730516568,0.21433023472619603,0.8235812149711469,-0.10473068244093406,-0.59632330733092,-0.5753141234521235,0.00508826796506866,-0.14311719634646472,-0.1295993519005313,1.0347213002519298,0.08678663707861875,-0.4471902570985681,-1.7477026407997691,-0.5921231234439717,-1.032850218849291,0.6633008894950793,1.714811009289123,0.2895927928551602,0.39218120336365847,0.9206255848270737,-0.6281378586750292,0.30790719062593175,0.21022068310562703,-0.0163729979040028,-1.3390308664553923,0.7713076848649848,0.03719638048563126,0.23586400599725446,-0.006607815635610872,-1.5960933465011276,-0.04378239126412745,-2.0981486412816026,-0.10148102429513756,0.7074633701570898,-0.7859573335265332,-0.1965267598616223,-0.023722002172139194,0.31716641644853866,1.4724047708046537,0.6201989343808476,-1.0565520497624377,-0.11490267389168043,-0.06843361949764054,-0.09735110225336555,0.9375061857161542,-1.0179601028900902,-0.222974888639885,-0.1268453832069223,-1.7377122282779194,0.48904810697887996,-0.5392197961565228,0.30714852083737637,-0.49806146777504645,-0.9742842731691744,-0.16109774885578682,-0.7521063983274582,0.4289634664200614,-0.4884409706525815,-1.0588937685819195,0.1949627600263876,-0.6492088999497391,-0.012403457142361764,0.49078425095552114,-0.010137704516043492,0.4065315845252653,-0.05649217778624715,1.579847912743125,0.15740089836357857,0.1509116539094657,1.2348615860057137,1.2112917553473004,0.3192074496935609,0.6148825997648633,0.9952399728940665,-0.3932817771366021,-0.27730187316499466,1.3384610457893278,0.03389676348480778,-0.004119066612996514,-0.7566551849793521,0.18494374059810642,-1.289766788713408,0.13029942431942448,0.011476520075388044,0.7306973233011999,0.4512958074660493,0.3946421351735963,1.4732289886111023,1.590274429712813,0.365209003237082,0.005186976638718326,1.0969325278739344,-0.4969425169750617,-0.43420056250889877,-0.7381848159889299,-0.5316567830462628,-0.21101410648570043,-0.7691327064165879,-0.15788686633205828,-0.22017242494175002,-1.1991717902724208,0.6836894007420917,-1.8262106116873698,-1.1284138591323871,0.5423024338264669,1.0818608196559683,0.9777554703783575,0.17572278051340226,0.42235466709222563,1.4587480963522665,-0.6577470236071011,-0.5886241048937101,0.22880508919360845,-0.11936731878801053,-0.4877168867246333,0.9090892542053792,0.33936501773897054,-0.717471768249602,-0.886247144088848,0.4754371385264873,-0.9696781960458108,0.6618632652552175,-0.8875736725404121,2.332897364244229,0.023002692194312575,0.6958217139677962,-0.9622535195574557,1.5019894808096221,-0.024635926850489154,0.33822790231510513,1.3511419445397075,-0.668175339040494,0.14738698362688094,0.43064691997901605,0.07983899303390314,-0.5966970313946026,-0.045127417302052206,0.46067560612293657,-0.5544285708284996,1.4377129412115417,-0.4533082434116281,1.4956293120096786,-0.09702541086328648,-0.4176844975647512,0.9550828496765362,-1.088897110523834,0.924063766646055,-0.7783603984984081,-0.11617856173285265,-2.0936211978260255,-0.8995167539665758,-0.3946666783792777,-1.5549708043336476,-0.7628481433772807,2.113856617981949,1.4240245369964966,0.20634704529472878,0.4274114090417159,-0.5527336738642604,-0.26030583493905896,-1.2906383836573088,0.5074320620058586,0.451576468677338,1.1480380013778058,0.2697672186922434,-0.8643071295312588,0.1185709220610193,0.0303908843450603,0.2593048317838188,-0.5510628160165327,-0.6202457082749451,-0.05105657650116695,-0.6515897967020964,-1.2142999576844458,1.8152596422726754,-0.5806173424411896,1.2267703607326235,-0.11569754366511809,-0.37544418659890333,-1.2712515453244428,0.7921062573097373,-0.32800830508874473,0.3059434082496924],[1.4626510010502694,0.25249812033097524,0.3058705607256648,0.15655960948893563,-0.9438376852885045,1.1446950323801495,0.7725412458538577,-0.05304584028337671,0.39045611239343714,1.8823223918282237,-0.10653902852523701,-0.26173129595339145,0.14240470701678493,-0.32603955814395363,-1.1818918233369307,-0.15773700445548516,0.6890929389502419,-0.40841754379890594,-0.3942464889953588,-1.118199625711344,0.08233949572190036,-0.224252649592799,0.5515470663194764,0.5275895870311044,0.7555280581695778,-0.10715795106673733,0.2452246666299655,-0.7487718236707113,0.07796691889362552,0.12062178127935584,-0.33499305881356384,-0.04760192199582176,0.21740881131562212,0.5749458315856658,-0.584828810533522,-0.23097145377897327,0.14150270659838435,0.19776303302503456,0.1850475063354659,0.4250754467267393,0.5577094828126561,-0.5040689472795966,-0.3888955275893539,-0.4634306069209685,0.5423332402866554,1.2186295713982704,-0.23421531157655195,0.8152851869101536,0.017060415659548248,-0.6166690837176451,0.5150645677074245,0.6928497422253517,-0.469170546095925,0.20647900430245486,0.39095244765187936,0.6822192484667218,-0.059616758976449885,-0.3950280036892418,-0.14873451356924056,0.6031578243190827,0.21769212786083111,-0.6025711688651717,-0.09866196821303436,0.5670006811838151,-0.5764157216442911,-0.46818800246450876,-0.8043356796692162,0.8519126028879852,-0.552133215461816,1.3896190937935153,-0.03605478946497522,0.5826601545065242,-1.5685046785722265,-0.3136918430344215,0.2720370809057245,0.270993375181288,0.2492058442571033,-0.1594366227586033,-0.2931306001967958,0.26225364855351824,1.255512401696708,0.38751617732752286,-1.6532722160354314,0.1986835806646407,-0.8765630507563565,1.190706656612777,-2.0121729545200386,1.8274058186244488,-0.48523883034129,-0.7402310012095116,-0.17174224717781797,1.032733459275284,-0.5041260400169547,-0.2946125164039176,-0.12936876478148152,-1.2788844855605463,-0.2811525678648332,-0.14664243165977275,0.6175444478894025,0.5549999545070788,0.6383815821214387,0.199053732126992,-0.5895170439188919,0.3155635263898222,-0.6920967651721252,-1.0092758185478414,0.2146621321841955,1.4950460351133048,0.5558819638088375,0.7652704940789353,-0.4319968488008979,-1.346201365259505,1.4240604238061623,-0.028767150377095284,-1.030775849516227,0.09368159223293122,0.44572430852687106,0.3510973599321041,0.9385306536463873,-0.30411641745535106,-0.45880000915328223,-0.3802882921976105,0.1771044598455931,-0.2339796153626438,0.21019485522498454,-0.5172661147944955,0.9959297359857366,1.0233323429779881,-0.36023836361728634,-0.07991340541710999,-0.2746596912851117,0.5563092284380321,-0.54633521722482,1.8273469179761779,-0.6301611397938048,-0.5314900572690016,-0.06452264720332207,-0.7916450068827763,-1.3082262969781437,-0.6033823864401152,0.9584916209750864,-0.866175422301432,-0.4935155556530602,0.5166160207937208,1.2957298520671428,0.23863428373123016,-1.2760127449140792,0.31722246301893064,-0.7402620885104746,-0.5084293520043079,1.1481264763021308,0.536150315290362,-0.41404836386999255,0.7061829154557403,-0.9535818516287232,1.0099769913620358,-1.084182079940786,-0.05365920617762928,-1.1028642955703731,-0.48331338382782524,0.6514004714705818,0.23453770173140462,0.5592057144919858,-0.8224349052680164,0.34252163268634456,-0.09286466526240436,-0.28275871440191175,0.34176540038906345,-0.34576202790902516,0.2563595889199087,-1.6119464920616298,0.6526808898889244,-1.1974562767699175,-1.0836866012550623,-0.35896462019117226,-0.06558758826669102,0.23217463697076518,-0.09635537824303994,-0.7566613253796111,-0.045526296827484714,0.7554948064801855,-0.8586767441715311,0.6290614702443391,1.3867795154847018,-0.02073541276412812,-1.0266417732763113,0.4824117798548369,-0.429311119550222,0.11433490913898074,1.419879940164915,1.1035371967037222,-0.4536344000172739,0.0161321150753504,-0.027709051851179802,0.8631318845785785,1.5375016839264235,0.23411897895535103,-0.161622560064611,-0.6757985477985109,-0.2430228864911467,-0.6018457940355496,-0.03778096691647214,-0.6756958026060674,0.6864983222017382,0.8406835148155414,0.985651452463924,1.304194034860727,0.22760828966406374,0.5425843849734835,-0.9417066909748604,0.924540390399751,-0.9029676814219497,-0.7587379426139157,1.212382423099733,-0.9894881829130244,0.06131912743371128,-0.8755091520876123,0.5810688863241427,-0.9101601538365927,-0.20947292103845383,-0.6982533981614675,-0.4677157724710358,0.1276400824081353,0.9922321438864941,2.2153256995490125,-0.3077987405616644,1.666713179591973,1.038006409250073,-0.7422879032588068,-1.1543689952514204,-0.46247844683505535,-0.38722610249228434,-0.48558074204648927,-0.17259019088852118,-0.37806684949000235,-0.432504208084298,0.7948302109856872,-0.3480788923460038,-0.5408269912506595,0.3066074109507427,0.15909721383584494,0.13509409936664982,1.4740660438702635,-2.3558599057137757,0.20005542768441137,-0.2453563755603471,-0.9761814725613234,0.4947777549055767,0.8502908052735769,-0.021312301357117678,-0.7498303897828807,-1.080686278874367,0.49090168920453925,-0.069339847481606,0.04858031753823023,-0.6214723766338962,0.6507672420283755,-0.17637004391632136,0.14768562586850278,-0.7660903261383957,-1.6616439363749222,1.18160299130676,-0.40005748057310514,-0.02216549875330308,0.19209521489401593,0.10962868362262843,-1.243572021153204,1.327401828178917,-0.35750117408854826,0.358543500600121,0.2459757876171679,0.07769233262033183,-0.6421680083771752,-1.1001857652601559,-0.37537513763978975,0.14567596972805924,-1.4002795523661258,-0.9202525525946674,0.0731303881414495,0.8462742369290893,-0.45709653144142437,-0.5516753463120958,1.0897046005280329,0.5805829653630719,-0.5131502029962443,-0.9920771021404736,-0.19953917688555034,-0.20059684012725512,0.2754950669210577,0.003394752919193587,-0.6637209622880028,0.7392733839765577,-1.2112678959645597,0.7172413343943109,-0.3516035239851549,-0.19494051745546978,-0.9950233306302294,0.3342887194094534,-0.10820790854723464,1.3903118635534855]],[[8.286472670981603,-5.875760045619825,-0.4257452719233406,0.49727575884062136,-8.89178445223379,-1.7386817479789247,-3.113641105193301,-6.111871421084713,4.4445015896262525,3.505266462211183],[-1.5091276845903494,-1.2600151669341058,0.06947161431534424,-1.9576235443306416,-1.2273882730525916,-1.1801920044772534,-1.358469992000067,-1.14885636265975,-0.9380477109741927,-1.191085035682264],[-7.674258055617735,6.056760818501689,1.4732755531517752,-1.0214714396798423,9.117439439119448,1.0742801749336115,2.5111503815150074,6.306779678550017,-4.653837179193601,-3.800299038816249]]],"biases":[[[2.6476978839470013],[-2.4088542955888292],[-1.9252406018460566],[-1.8344415576442146],[-2.859679886581982],[-1.9374710396567125],[-2.069029454701099],[2.2479123930303255],[-2.483024313497075],[-2.3378923883039695]],[[-0.2870781146187949],[-2.8004725389599243],[-0.3559256751444991]]]}